digraph Tree {
node [shape=box, style="filled, rounded", color="black", fontname="helvetica"] ;
edge [fontname="helvetica"] ;
0 [label="Perimeter <= 15.055\ngini = 0.667\nsamples = 210\nvalue = [70, 70, 70]\nclass = Kama", fillcolor="#ffffff"] ;
1 [label="Width of kernel <= 3.021\ngini = 0.527\nsamples = 139\nvalue = [70, 65, 4]\nclass = Kama", fillcolor="#fdf6f2"] ;
0 -> 1 [labeldistance=2.5, labelangle=45, headlabel="True"] ;
2 [label="Asymmetry coefficient <= 2.891\ngini = 0.165\nsamples = 66\nvalue = [60, 6, 0]\nclass = Kama", fillcolor="#e88e4d"] ;
1 -> 2 ;
3 [label="Length of kernel groove <= 5.009\ngini = 0.469\nsamples = 8\nvalue = [3, 5, 0]\nclass = Rosa", fillcolor="#b0f5cd"] ;
2 -> 3 ;
4 [label="gini = 0.0\nsamples = 4\nvalue = [0, 4, 0]\nclass = Rosa", fillcolor="#39e581"] ;
3 -> 4 ;
5 [label="Asymmetry coefficient <= 1.258\ngini = 0.375\nsamples = 4\nvalue = [3, 1, 0]\nclass = Kama", fillcolor="#eeab7b"] ;
3 -> 5 ;
6 [label="gini = 0.0\nsamples = 1\nvalue = [0, 1, 0]\nclass = Rosa", fillcolor="#39e581"] ;
5 -> 6 ;
7 [label="gini = 0.0\nsamples = 3\nvalue = [3, 0, 0]\nclass = Kama", fillcolor="#e58139"] ;
5 -> 7 ;
8 [label="Length of kernel <= 5.411\ngini = 0.034\nsamples = 58\nvalue = [57, 1, 0]\nclass = Kama", fillcolor="#e5833c"] ;
2 -> 8 ;
9 [label="gini = 0.0\nsamples = 52\nvalue = [52, 0, 0]\nclass = Kama", fillcolor="#e58139"] ;
8 -> 9 ;
10 [label="Length of kernel <= 5.413\ngini = 0.278\nsamples = 6\nvalue = [5, 1, 0]\nclass = Kama", fillcolor="#ea9a61"] ;
8 -> 10 ;
11 [label="gini = 0.0\nsamples = 1\nvalue = [0, 1, 0]\nclass = Rosa", fillcolor="#39e581"] ;
10 -> 11 ;
12 [label="gini = 0.0\nsamples = 5\nvalue = [5, 0, 0]\nclass = Kama", fillcolor="#e58139"] ;
10 -> 12 ;
13 [label="Perimeter <= 13.985\ngini = 0.325\nsamples = 73\nvalue = [10, 59, 4]\nclass = Rosa", fillcolor="#65eb9d"] ;
1 -> 13 ;
14 [label="Length of kernel groove <= 4.827\ngini = 0.496\nsamples = 22\nvalue = [10, 12, 0]\nclass = Rosa", fillcolor="#defbea"] ;
13 -> 14 ;
15 [label="Area <= 12.725\ngini = 0.198\nsamples = 9\nvalue = [1, 8, 0]\nclass = Rosa", fillcolor="#52e891"] ;
14 -> 15 ;
16 [label="Area <= 12.515\ngini = 0.444\nsamples = 3\nvalue = [1, 2, 0]\nclass = Rosa", fillcolor="#9cf2c0"] ;
15 -> 16 ;
17 [label="gini = 0.0\nsamples = 2\nvalue = [0, 2, 0]\nclass = Rosa", fillcolor="#39e581"] ;
16 -> 17 ;
18 [label="gini = 0.0\nsamples = 1\nvalue = [1, 0, 0]\nclass = Kama", fillcolor="#e58139"] ;
16 -> 18 ;
19 [label="gini = 0.0\nsamples = 6\nvalue = [0, 6, 0]\nclass = Rosa", fillcolor="#39e581"] ;
15 -> 19 ;
20 [label="Asymmetry coefficient <= 4.414\ngini = 0.426\nsamples = 13\nvalue = [9, 4, 0]\nclass = Kama", fillcolor="#f1b991"] ;
14 -> 20 ;
21 [label="Compactness <= 0.892\ngini = 0.32\nsamples = 5\nvalue = [1, 4, 0]\nclass = Rosa", fillcolor="#6aeca0"] ;
20 -> 21 ;
22 [label="gini = 0.0\nsamples = 4\nvalue = [0, 4, 0]\nclass = Rosa", fillcolor="#39e581"] ;
21 -> 22 ;
23 [label="gini = 0.0\nsamples = 1\nvalue = [1, 0, 0]\nclass = Kama", fillcolor="#e58139"] ;
21 -> 23 ;
24 [label="gini = 0.0\nsamples = 8\nvalue = [8, 0, 0]\nclass = Kama", fillcolor="#e58139"] ;
20 -> 24 ;
25 [label="Length of kernel groove <= 5.661\ngini = 0.145\nsamples = 51\nvalue = [0, 47, 4]\nclass = Rosa", fillcolor="#4ae78c"] ;
13 -> 25 ;
26 [label="Width of kernel <= 3.572\ngini = 0.078\nsamples = 49\nvalue = [0.0, 47.0, 2.0]\nclass = Rosa", fillcolor="#41e686"] ;
25 -> 26 ;
27 [label="Length of kernel groove <= 5.418\ngini = 0.041\nsamples = 48\nvalue = [0, 47, 1]\nclass = Rosa", fillcolor="#3de684"] ;
26 -> 27 ;
28 [label="gini = 0.0\nsamples = 43\nvalue = [0, 43, 0]\nclass = Rosa", fillcolor="#39e581"] ;
27 -> 28 ;
29 [label="Length of kernel <= 5.59\ngini = 0.32\nsamples = 5\nvalue = [0, 4, 1]\nclass = Rosa", fillcolor="#6aeca0"] ;
27 -> 29 ;
30 [label="gini = 0.0\nsamples = 1\nvalue = [0, 0, 1]\nclass = Canadian", fillcolor="#8139e5"] ;
29 -> 30 ;
31 [label="gini = 0.0\nsamples = 4\nvalue = [0, 4, 0]\nclass = Rosa", fillcolor="#39e581"] ;
29 -> 31 ;
32 [label="gini = 0.0\nsamples = 1\nvalue = [0, 0, 1]\nclass = Canadian", fillcolor="#8139e5"] ;
26 -> 32 ;
33 [label="gini = 0.0\nsamples = 2\nvalue = [0, 0, 2]\nclass = Canadian", fillcolor="#8139e5"] ;
25 -> 33 ;
34 [label="Perimeter <= 15.485\ngini = 0.131\nsamples = 71\nvalue = [0, 5, 66]\nclass = Canadian", fillcolor="#8b48e7"] ;
0 -> 34 [labeldistance=2.5, labelangle=-45, headlabel="False"] ;
35 [label="Length of kernel groove <= 5.576\ngini = 0.486\nsamples = 12\nvalue = [0, 5, 7]\nclass = Canadian", fillcolor="#dbc6f8"] ;
34 -> 35 ;
36 [label="gini = 0.0\nsamples = 4\nvalue = [0, 4, 0]\nclass = Rosa", fillcolor="#39e581"] ;
35 -> 36 ;
37 [label="Perimeter <= 15.42\ngini = 0.219\nsamples = 8\nvalue = [0, 1, 7]\nclass = Canadian", fillcolor="#9355e9"] ;
35 -> 37 ;
38 [label="gini = 0.0\nsamples = 7\nvalue = [0, 0, 7]\nclass = Canadian", fillcolor="#8139e5"] ;
37 -> 38 ;
39 [label="gini = 0.0\nsamples = 1\nvalue = [0, 1, 0]\nclass = Rosa", fillcolor="#39e581"] ;
37 -> 39 ;
40 [label="gini = 0.0\nsamples = 59\nvalue = [0, 0, 59]\nclass = Canadian", fillcolor="#8139e5"] ;
34 -> 40 ;
}